digraph Tree {
node [shape=box, style="filled, rounded", color="black", fontname=helvetica] ;
edge [fontname=helvetica] ;
0 [label="RV Size <= 0.17\ngini = 0.44\nsamples = 42\nvalue = [42, 21]", fillcolor="#f2c09c"] ;
1 [label="RV Function <= 0.75\ngini = 0.48\nsamples = 15\nvalue = [9, 13]", fillcolor="#c2e1f7"] ;
0 -> 1 [labeldistance=2.5, labelangle=45, headlabel="True"] ;
2 [label="DM (1/0) <= 0.5\ngini = 0.43\nsamples = 10\nvalue = [9, 4]", fillcolor="#f1b991"] ;
1 -> 2 ;
3 [label="gini = 0.0\nsamples = 6\nvalue = [8, 0]", fillcolor="#e58139"] ;
2 -> 3 ;
4 [label="Original EndoGLS (%) <= 0.77\ngini = 0.32\nsamples = 4\nvalue = [1, 4]", fillcolor="#6ab6ec"] ;
2 -> 4 ;
5 [label="Original EDA  (cm2) <= 0.13\ngini = 0.5\nsamples = 2\nvalue = [1, 1]", fillcolor="#ffffff"] ;
4 -> 5 ;
6 [label="gini = 0.0\nsamples = 1\nvalue = [0, 1]", fillcolor="#399de5"] ;
5 -> 6 ;
7 [label="gini = 0.0\nsamples = 1\nvalue = [1, 0]", fillcolor="#e58139"] ;
5 -> 7 ;
8 [label="gini = 0.0\nsamples = 2\nvalue = [0, 3]", fillcolor="#399de5"] ;
4 -> 8 ;
9 [label="gini = 0.0\nsamples = 5\nvalue = [0, 9]", fillcolor="#399de5"] ;
1 -> 9 ;
10 [label="Original FAC (%) <= 0.2\ngini = 0.31\nsamples = 27\nvalue = [33, 8]", fillcolor="#eba069"] ;
0 -> 10 [labeldistance=2.5, labelangle=-45, headlabel="False"] ;
11 [label="gini = 0.0\nsamples = 3\nvalue = [0, 3]", fillcolor="#399de5"] ;
10 -> 11 ;
12 [label="Size/Location of Embolus <= 0.75\ngini = 0.23\nsamples = 24\nvalue = [33, 5]", fillcolor="#e99457"] ;
10 -> 12 ;
13 [label="DM (1/0) <= 0.5\ngini = 0.11\nsamples = 22\nvalue = [33, 2]", fillcolor="#e78945"] ;
12 -> 13 ;
14 [label="gini = 0.0\nsamples = 16\nvalue = [26, 0]", fillcolor="#e58139"] ;
13 -> 14 ;
15 [label="RV Function <= 0.88\ngini = 0.35\nsamples = 6\nvalue = [7, 2]", fillcolor="#eca572"] ;
13 -> 15 ;
16 [label="gini = 0.0\nsamples = 5\nvalue = [7, 0]", fillcolor="#e58139"] ;
15 -> 16 ;
17 [label="gini = 0.0\nsamples = 1\nvalue = [0, 2]", fillcolor="#399de5"] ;
15 -> 17 ;
18 [label="gini = 0.0\nsamples = 2\nvalue = [0, 3]", fillcolor="#399de5"] ;
12 -> 18 ;
}