digraph Tree {
node [shape=box, style="filled, rounded", color="black", fontname=helvetica] ;
edge [fontname=helvetica] ;
0 [label="DM (1/0) <= 0.5\ngini = 0.46\nsamples = 39\nvalue = [40, 23]", fillcolor="#f4c9ab"] ;
1 [label="Original EndoGLS (%) <= 0.85\ngini = 0.37\nsamples = 21\nvalue = [25, 8]", fillcolor="#eda978"] ;
0 -> 1 [labeldistance=2.5, labelangle=45, headlabel="True"] ;
2 [label="Size/Location of Embolus <= 0.75\ngini = 0.08\nsamples = 15\nvalue = [24, 1]", fillcolor="#e68641"] ;
1 -> 2 ;
3 [label="gini = 0.0\nsamples = 13\nvalue = [22, 0]", fillcolor="#e58139"] ;
2 -> 3 ;
4 [label="BMI <= 0.05\ngini = 0.44\nsamples = 2\nvalue = [2, 1]", fillcolor="#f2c09c"] ;
2 -> 4 ;
5 [label="gini = 0.0\nsamples = 1\nvalue = [0, 1]", fillcolor="#399de5"] ;
4 -> 5 ;
6 [label="gini = 0.0\nsamples = 1\nvalue = [2, 0]", fillcolor="#e58139"] ;
4 -> 6 ;
7 [label="RV Size <= 0.5\ngini = 0.22\nsamples = 6\nvalue = [1, 7]", fillcolor="#55abe9"] ;
1 -> 7 ;
8 [label="gini = 0.0\nsamples = 4\nvalue = [0, 6]", fillcolor="#399de5"] ;
7 -> 8 ;
9 [label="Original EndoGLS (%) <= 0.95\ngini = 0.5\nsamples = 2\nvalue = [1, 1]", fillcolor="#ffffff"] ;
7 -> 9 ;
10 [label="gini = 0.0\nsamples = 1\nvalue = [0, 1]", fillcolor="#399de5"] ;
9 -> 10 ;
11 [label="gini = 0.0\nsamples = 1\nvalue = [1, 0]", fillcolor="#e58139"] ;
9 -> 11 ;
12 [label="RV Size <= 0.17\ngini = 0.5\nsamples = 18\nvalue = [15, 15]", fillcolor="#ffffff"] ;
0 -> 12 [labeldistance=2.5, labelangle=-45, headlabel="False"] ;
13 [label="TR Velocity <= 0.64\ngini = 0.3\nsamples = 5\nvalue = [2, 9]", fillcolor="#65b3eb"] ;
12 -> 13 ;
14 [label="gini = 0.0\nsamples = 4\nvalue = [0, 9]", fillcolor="#399de5"] ;
13 -> 14 ;
15 [label="gini = 0.0\nsamples = 1\nvalue = [2, 0]", fillcolor="#e58139"] ;
13 -> 15 ;
16 [label="Original FAC (%) <= 0.57\ngini = 0.43\nsamples = 13\nvalue = [13, 6]", fillcolor="#f1bb94"] ;
12 -> 16 ;
17 [label="Original ESA (cm2) <= 0.0\ngini = 0.5\nsamples = 9\nvalue = [6, 6]", fillcolor="#ffffff"] ;
16 -> 17 ;
18 [label="RV Function <= 0.88\ngini = 0.32\nsamples = 3\nvalue = [1, 4]", fillcolor="#6ab6ec"] ;
17 -> 18 ;
19 [label="gini = 0.0\nsamples = 1\nvalue = [1, 0]", fillcolor="#e58139"] ;
18 -> 19 ;
20 [label="gini = 0.0\nsamples = 2\nvalue = [0, 4]", fillcolor="#399de5"] ;
18 -> 20 ;
21 [label="Original EDA  (cm2) <= 0.52\ngini = 0.41\nsamples = 6\nvalue = [5, 2]", fillcolor="#efb388"] ;
17 -> 21 ;
22 [label="gini = 0.0\nsamples = 3\nvalue = [4, 0]", fillcolor="#e58139"] ;
21 -> 22 ;
23 [label="Sex (M/F) <= 0.5\ngini = 0.44\nsamples = 3\nvalue = [1, 2]", fillcolor="#9ccef2"] ;
21 -> 23 ;
24 [label="Original ESA (cm2) <= 0.0\ngini = 0.5\nsamples = 2\nvalue = [1, 1]", fillcolor="#ffffff"] ;
23 -> 24 ;
25 [label="gini = 0.0\nsamples = 1\nvalue = [0, 1]", fillcolor="#399de5"] ;
24 -> 25 ;
26 [label="gini = 0.0\nsamples = 1\nvalue = [1, 0]", fillcolor="#e58139"] ;
24 -> 26 ;
27 [label="gini = 0.0\nsamples = 1\nvalue = [0, 1]", fillcolor="#399de5"] ;
23 -> 27 ;
28 [label="gini = 0.0\nsamples = 4\nvalue = [7, 0]", fillcolor="#e58139"] ;
16 -> 28 ;
}